Language model created by QuickLM on Sat Mar 24 07:49:58 EDT 2018
Copyright (c) 1996-2010 Carnegie Mellon University and Alexander I. Rudnicky

The model is in standard ARPA format, designed by Doug Paul while he was at MITRE.

The code that was used to produce this language model is available in Open Source.
Please visit http://www.speech.cs.cmu.edu/tools/ for more information

The (fixed) discount mass is 0.5. The backoffs are computed using the ratio method.
This model based on a corpus of 15 sentences and 40 words

\data\
ngram 1=40
ngram 2=59
ngram 3=55

\1-grams:
-1.9638 'A`ūDHU -0.2963
-1.9638 'AĥAD -0.2641
-1.9638 'IDHā -0.2963
-2.2648 'ILAHI -0.2891
-1.0887 </s> -0.3010
-1.0887 <s> -0.2484
-2.2648 AL-FALAQ -0.2641
-2.2648 AL-JINNATI -0.2915
-2.2648 AL-KHANNāS -0.2641
-2.2648 AL-LADHī -0.2987
-2.2648 AL-WASWāSI -0.2987
-2.2648 AL-`UQAD -0.2641
-1.9638 ALLāHU -0.2939
-2.2648 AN-NAFFāTHāTI -0.2963
-1.5658 AN-NāS -0.2641
-2.2648 Aş-ŞAMAD -0.2641
-1.9638 BIRABBI -0.2866
-1.9638 Fī -0.2963
-2.2648 GHāSIQIN -0.2963
-2.2648 HUWA -0.2963
-2.2648 KHALAQ -0.2641
-2.2648 KUFūAN -0.2963
-2.2648 LAHU -0.2987
-2.2648 LAM -0.2987
-2.2648 MALIKI -0.2891
-1.5658 MIN -0.2891
-2.2648 MINA -0.2987
-2.2648 Mā -0.2987
-1.7877 QUL -0.2939
-1.5658 SHARRI -0.2891
-1.6628 WA -0.2768
-1.9638 WALAM -0.2963
-2.2648 WAQAB -0.2641
-2.2648 YAKUN -0.2987
-2.2648 YALID -0.2963
-2.2648 YUWASWISU -0.2963
-2.2648 YūLAD -0.2641
-2.2648 ĤASAD -0.2641
-2.2648 ĤāSIDIN -0.2963
-2.2648 ŞUDūRI -0.2891

\2-grams:
-0.3010 'A`ūDHU BIRABBI 0.0000
-0.3010 'AĥAD </s> -0.3010
-0.6021 'IDHā WAQAB 0.0000
-0.6021 'IDHā ĤASAD 0.0000
-0.3010 'ILAHI AN-NāS 0.0000
-1.4771 <s> 'ILAHI 0.0000
-1.4771 <s> AL-LADHī 0.0000
-1.4771 <s> ALLāHU -0.1761
-1.4771 <s> LAM 0.0000
-1.4771 <s> MALIKI 0.0000
-1.1761 <s> MIN 0.0000
-1.4771 <s> MINA 0.0000
-1.0000 <s> QUL 0.0000
-1.0000 <s> WA -0.0969
-1.4771 <s> WALAM -0.1761
-0.3010 AL-FALAQ </s> -0.3010
-0.3010 AL-JINNATI WA -0.2430
-0.3010 AL-KHANNāS </s> -0.3010
-0.3010 AL-LADHī YUWASWISU 0.0000
-0.3010 AL-WASWāSI AL-KHANNāS 0.0000
-0.3010 AL-`UQAD </s> -0.3010
-0.6021 ALLāHU 'AĥAD 0.0000
-0.6021 ALLāHU Aş-ŞAMAD 0.0000
-0.3010 AN-NAFFāTHāTI Fī -0.1761
-0.3010 AN-NāS </s> -0.3010
-0.3010 Aş-ŞAMAD </s> -0.3010
-0.6021 BIRABBI AL-FALAQ 0.0000
-0.6021 BIRABBI AN-NāS 0.0000
-0.6021 Fī AL-`UQAD 0.0000
-0.6021 Fī ŞUDūRI 0.0000
-0.3010 GHāSIQIN 'IDHā -0.1761
-0.3010 HUWA ALLāHU -0.1761
-0.3010 KHALAQ </s> -0.3010
-0.3010 KUFūAN 'AĥAD 0.0000
-0.3010 LAHU KUFūAN 0.0000
-0.3010 LAM YALID 0.0000
-0.3010 MALIKI AN-NāS 0.0000
-0.3010 MIN SHARRI 0.0000
-0.3010 MINA AL-JINNATI 0.0000
-0.3010 Mā KHALAQ 0.0000
-0.4771 QUL 'A`ūDHU 0.0000
-0.7782 QUL HUWA 0.0000
-1.0000 SHARRI AL-WASWāSI 0.0000
-1.0000 SHARRI AN-NAFFāTHāTI 0.0000
-1.0000 SHARRI GHāSIQIN 0.0000
-1.0000 SHARRI Mā 0.0000
-1.0000 SHARRI ĤāSIDIN 0.0000
-0.9031 WA AN-NāS 0.0000
-0.4260 WA MIN 0.0000
-0.6021 WALAM YAKUN 0.0000
-0.6021 WALAM YūLAD 0.0000
-0.3010 WAQAB </s> -0.3010
-0.3010 YAKUN LAHU 0.0000
-0.3010 YALID WALAM -0.1761
-0.3010 YUWASWISU Fī -0.1761
-0.3010 YūLAD </s> -0.3010
-0.3010 ĤASAD </s> -0.3010
-0.3010 ĤāSIDIN 'IDHā -0.1761
-0.3010 ŞUDūRI AN-NāS 0.0000

\3-grams:
-0.6021 'A`ūDHU BIRABBI AL-FALAQ
-0.6021 'A`ūDHU BIRABBI AN-NāS
-0.3010 'IDHā WAQAB </s>
-0.3010 'IDHā ĤASAD </s>
-0.3010 'ILAHI AN-NāS </s>
-0.3010 <s> 'ILAHI AN-NāS
-0.3010 <s> AL-LADHī YUWASWISU
-0.3010 <s> ALLāHU Aş-ŞAMAD
-0.3010 <s> LAM YALID
-0.3010 <s> MALIKI AN-NāS
-0.3010 <s> MIN SHARRI
-0.3010 <s> MINA AL-JINNATI
-0.4771 <s> QUL 'A`ūDHU
-0.7782 <s> QUL HUWA
-0.3010 <s> WA MIN
-0.3010 <s> WALAM YAKUN
-0.3010 AL-JINNATI WA AN-NāS
-0.3010 AL-LADHī YUWASWISU Fī
-0.3010 AL-WASWāSI AL-KHANNāS </s>
-0.3010 ALLāHU 'AĥAD </s>
-0.3010 ALLāHU Aş-ŞAMAD </s>
-0.3010 AN-NAFFāTHāTI Fī AL-`UQAD
-0.3010 BIRABBI AL-FALAQ </s>
-0.3010 BIRABBI AN-NāS </s>
-0.3010 Fī AL-`UQAD </s>
-0.3010 Fī ŞUDūRI AN-NāS
-0.3010 GHāSIQIN 'IDHā WAQAB
-0.3010 HUWA ALLāHU 'AĥAD
-0.3010 KUFūAN 'AĥAD </s>
-0.3010 LAHU KUFūAN 'AĥAD
-0.3010 LAM YALID WALAM
-0.3010 MALIKI AN-NāS </s>
-1.0000 MIN SHARRI AL-WASWāSI
-1.0000 MIN SHARRI AN-NAFFāTHāTI
-1.0000 MIN SHARRI GHāSIQIN
-1.0000 MIN SHARRI Mā
-1.0000 MIN SHARRI ĤāSIDIN
-0.3010 MINA AL-JINNATI WA
-0.3010 Mā KHALAQ </s>
-0.3010 QUL 'A`ūDHU BIRABBI
-0.3010 QUL HUWA ALLāHU
-0.3010 SHARRI AL-WASWāSI AL-KHANNāS
-0.3010 SHARRI AN-NAFFāTHāTI Fī
-0.3010 SHARRI GHāSIQIN 'IDHā
-0.3010 SHARRI Mā KHALAQ
-0.3010 SHARRI ĤāSIDIN 'IDHā
-0.3010 WA AN-NāS </s>
-0.3010 WA MIN SHARRI
-0.3010 WALAM YAKUN LAHU
-0.3010 WALAM YūLAD </s>
-0.3010 YAKUN LAHU KUFūAN
-0.3010 YALID WALAM YūLAD
-0.3010 YUWASWISU Fī ŞUDūRI
-0.3010 ĤāSIDIN 'IDHā ĤASAD
-0.3010 ŞUDūRI AN-NāS </s>

\end\
